5.777245387434959412e-03
-9.739241003990173340e-02
-1.172570325434207916e-02
0.000000000000000000e+00
4.639155045151710510e-02
-3.724483549594879150e-01
-2.246319316327571869e-02
2.701008617877960205e-01
-4.293039906769990921e-03
6.169155240058898926e-01
1.321484744548797607e-01
3.586883842945098877e-01
-5.427103638648986816e-01
0.000000000000000000e+00
0.000000000000000000e+00
-2.119382843375205994e-02
1.839799433946609497e-01
2.233631312847137451e-01
9.476203471422195435e-02
-2.172851264476776123e-01
-1.159021537750959396e-02
3.279887139797210693e-01
2.519893050193786621e-01
2.129615843296051025e-01
2.271529734134674072e-01
-1.533863414078950882e-02
-2.897575795650482178e-01
-2.648403868079185486e-02
4.167725443840026855e-01
2.706309854984283447e-01
2.679193615913391113e-01
-5.660334825515747070e-01
-1.802415996789932251e-01
-4.982277750968933105e-03
-8.749968372285366058e-03
-1.292020827531814575e-01
-5.641003604978322983e-03
-1.244375016540288925e-02
-6.774242520332336426e-01
-1.635701581835746765e-02
-4.364342987537384033e-02
2.742219157516956329e-02
2.561248540878295898e-01
3.790455460548400879e-01
-1.237898133695125580e-02
-1.200528629124164581e-02
9.136021882295608521e-02
-8.360417932271957397e-02
-1.388214379549026489e-01
-2.814349532127380371e-02
8.856212347745895386e-02
1.908437311649322510e-01
-3.523068875074386597e-02
-2.274885773658752441e-03
-7.492425441741943359e-01
-7.534931413829326630e-03
-1.807479709386825562e-01
-7.148154545575380325e-03
-2.066469788551330566e-01
-1.987527124583721161e-02
-6.101734638214111328e-01
2.093100920319557190e-02
4.813132286071777344e-01
-5.960678309202194214e-02

