8.194842934608459473e-01
7.824892401695251465e-01
2.850568294525146484e-01
1.057308763265609741e-01
3.721145093441009521e-01
5.749354958534240723e-01
6.661897897720336914e-01
6.644871830940246582e-01
7.435047626495361328e-01
7.937510013580322266e-01
5.109051465988159180e-01
2.081705629825592041e-01
-9.757108055055141449e-04
-1.195984780788421631e-01
-1.064076051115989685e-01
-1.640234291553497314e-01
1.180751547217369080e-01
4.788324534893035889e-01
8.853150606155395508e-01
8.831822276115417480e-01
8.994318246841430664e-01
9.570374488830566406e-01
1.067425131797790527e+00
1.216116070747375488e+00
-1.204365849494934082e+00
-2.132740259170532227e+00
-3.535152673721313477e+00
-4.046734809875488281e+00
-2.737999677658081055e+00
-2.185479164123535156e+00
-2.760789394378662109e+00
-2.099911451339721680e+00
-1.650986909866333008e+00
-7.409354448318481445e-01
-1.808300971984863281e+00
-2.193000555038452148e+00
-1.636473894119262695e+00
-1.267830491065979004e+00
-1.425688266754150391e+00
-2.532143831253051758e+00
-1.721599549055099487e-01
-6.737046241760253906e-01
-1.739688031375408173e-02
-1.114125967025756836e+00
-2.328671455383300781e+00
-1.932277560234069824e+00
-1.381032109260559082e+00
-2.991987705230712891e+00
-3.343915224075317383e+00
-3.528389215469360352e+00
-3.894167900085449219e+00
-2.689806699752807617e+00
-1.301848292350769043e+00
-7.453498244285583496e-01
-1.005777597427368164e+00
-1.034395337104797363e+00
-4.277020692825317383e-01
-3.110384047031402588e-01
-1.507285237312316895e-01
9.318274259567260742e-02
3.013761043548583984e-01
1.518462598323822021e-02
3.012704551219940186e-01
5.295397043228149414e-01
4.131501317024230957e-01
1.208222806453704834e-01
1.795207113027572632e-01
3.628356158733367920e-01
9.055568575859069824e-01
1.075326085090637207e+00
1.270274043083190918e+00
6.027612090110778809e-01
-6.544242501258850098e-01
2.038750946521759033e-01
-4.331618845462799072e-01
-7.071996927261352539e-01
-3.978777229785919189e-01
3.116360306739807129e-01
1.985062807798385620e-01
-2.367938905954360962e-01
-2.276267558336257935e-01
5.339187979698181152e-01
1.670945584774017334e-01
-3.894275724887847900e-01
5.651342868804931641e-01
5.269750356674194336e-01
-8.638302087783813477e-01
-4.108983874320983887e-01
3.228004872798919678e-01
3.315716981887817383e-02
-4.175675809383392334e-01
-2.748782634735107422e-01
5.357163548469543457e-01
7.990589737892150879e-01
-3.721341118216514587e-02
-1.032523036003112793e+00
-3.075423240661621094e-01
-1.668791286647319794e-02
-1.062315553426742554e-01
-9.502251446247100830e-02
-2.457213550806045532e-01
-5.250221118330955505e-02
6.322550773620605469e-02
4.232705011963844299e-02
4.859152436256408691e-02
-5.586012601852416992e-01
-4.585073292255401611e-01
-1.115140840411186218e-01
5.610799416899681091e-02
2.520887851715087891e-01
3.268244862556457520e-01
1.922835409641265869e-01
2.953630983829498291e-01
4.817438125610351562e-01
4.382799565792083740e-01
8.102650754153728485e-03
-1.910032033920288086e-01
-3.045478165149688721e-01
-1.563041098415851593e-02
4.317984879016876221e-01
2.852398455142974854e-01
7.294438481330871582e-01
1.248543739318847656e+00
2.719669342041015625e-01
3.560161590576171875e-02
-7.570611685514450073e-02
9.664823412895202637e-01
9.923343658447265625e-01
6.902669072151184082e-01
6.841974854469299316e-01
6.162636876106262207e-01
7.198568582534790039e-01
8.337581157684326172e-01
8.645561337471008301e-01
6.189116835594177246e-01
8.097334504127502441e-01
7.609564661979675293e-01
5.891838073730468750e-01
4.775501489639282227e-01
5.275461077690124512e-01
3.210072219371795654e-01
2.417985349893569946e-01
-2.582296356558799744e-02
-1.350662350654602051e+00
-1.249290108680725098e+00
2.584163844585418701e-01
8.447852730751037598e-01
-2.320533990859985352e+00
4.024022221565246582e-01
2.166522145271301270e-01
-1.377873718738555908e-01
1.204833462834358215e-01
-1.674832105636596680e-01
2.448885202407836914e+00

