-4.313839375972747803e-01
0.000000000000000000e+00
0.000000000000000000e+00
0.000000000000000000e+00
-5.508182048797607422e-01
-4.819580316543579102e-01
-1.043448820710182190e-01
-8.836296200752258301e-01
-2.613399922847747803e-01
0.000000000000000000e+00
-6.802108883857727051e-01
4.103796184062957764e-01
-4.876829683780670166e-01
0.000000000000000000e+00
1.280926614999771118e-01
-1.408151090145111084e-01
-3.714323341846466064e-01
0.000000000000000000e+00
-1.574276760220527649e-02
1.003247499465942383e-02
-3.092853426933288574e-01
-1.004356741905212402e+00
-3.552072048187255859e-01
-5.833670031279325485e-03
-1.125074028968811035e+00
9.604739397764205933e-02
-9.607041627168655396e-02
-1.390187162905931473e-02
0.000000000000000000e+00
-6.483516190201044083e-03
-4.310369193553924561e-01
-1.008292566984891891e-02
-9.450864046812057495e-03
0.000000000000000000e+00
0.000000000000000000e+00
0.000000000000000000e+00
4.258267581462860107e-01
2.444648742675781250e-01
-1.966253221035003662e-01
-6.101229228079319000e-03
3.784658610820770264e-01
-2.812170088291168213e-01
5.364946126937866211e-01
-6.208273582160472870e-03
-7.124452590942382812e-01
0.000000000000000000e+00
0.000000000000000000e+00
-7.081051822751760483e-03
-6.439698860049247742e-03
0.000000000000000000e+00
5.287703871726989746e-01
-4.408616125583648682e-01
1.188041210174560547e+00
-1.092339009046554565e-01
-2.580468654632568359e-01
-1.765696257352828979e-01
-6.604468226432800293e-01
-8.253127932548522949e-01
1.093582957983016968e-01
-1.053202431648969650e-03
6.951763629913330078e-01
-4.329317212104797363e-01
1.675735712051391602e-01
1.926617324352264404e-01

